digraph Tree {
node [shape=box] ;
0 [label="X[36] <= 0.5\ngini = 0.898\nsamples = 359\nvalue = [45, 40, 34, 31, 31, 38, 42, 33, 33, 32]"] ;
1 [label="X[33] <= 1.0\ngini = 0.463\nsamples = 60\nvalue = [43, 0, 1, 1, 0, 5, 3, 0, 0, 7]"] ;
0 -> 1 [labeldistance=2.5, labelangle=45, headlabel="True"] ;
2 [label="X[13] <= 7.5\ngini = 0.673\nsamples = 14\nvalue = [0, 0, 1, 1, 0, 3, 2, 0, 0, 7]"] ;
1 -> 2 ;
3 [label="X[42] <= 5.0\ngini = 0.611\nsamples = 6\nvalue = [0, 0, 1, 0, 0, 3, 2, 0, 0, 0]"] ;
2 -> 3 ;
4 [label="gini = 0.0\nsamples = 3\nvalue = [0, 0, 0, 0, 0, 3, 0, 0, 0, 0]"] ;
3 -> 4 ;
5 [label="X[28] <= 4.5\ngini = 0.444\nsamples = 3\nvalue = [0, 0, 1, 0, 0, 0, 2, 0, 0, 0]"] ;
3 -> 5 ;
6 [label="gini = 0.0\nsamples = 2\nvalue = [0, 0, 0, 0, 0, 0, 2, 0, 0, 0]"] ;
5 -> 6 ;
7 [label="gini = 0.0\nsamples = 1\nvalue = [0, 0, 1, 0, 0, 0, 0, 0, 0, 0]"] ;
5 -> 7 ;
8 [label="X[4] <= 15.5\ngini = 0.219\nsamples = 8\nvalue = [0, 0, 0, 1, 0, 0, 0, 0, 0, 7]"] ;
2 -> 8 ;
9 [label="gini = 0.0\nsamples = 7\nvalue = [0, 0, 0, 0, 0, 0, 0, 0, 0, 7]"] ;
8 -> 9 ;
10 [label="gini = 0.0\nsamples = 1\nvalue = [0, 0, 0, 1, 0, 0, 0, 0, 0, 0]"] ;
8 -> 10 ;
11 [label="X[5] <= 11.0\ngini = 0.124\nsamples = 46\nvalue = [43, 0, 0, 0, 0, 2, 1, 0, 0, 0]"] ;
1 -> 11 ;
12 [label="X[13] <= 1.5\ngini = 0.044\nsamples = 44\nvalue = [43, 0, 0, 0, 0, 0, 1, 0, 0, 0]"] ;
11 -> 12 ;
13 [label="gini = 0.0\nsamples = 1\nvalue = [0, 0, 0, 0, 0, 0, 1, 0, 0, 0]"] ;
12 -> 13 ;
14 [label="gini = 0.0\nsamples = 43\nvalue = [43, 0, 0, 0, 0, 0, 0, 0, 0, 0]"] ;
12 -> 14 ;
15 [label="gini = 0.0\nsamples = 2\nvalue = [0, 0, 0, 0, 0, 2, 0, 0, 0, 0]"] ;
11 -> 15 ;
16 [label="X[21] <= 0.5\ngini = 0.889\nsamples = 299\nvalue = [2, 40, 33, 30, 31, 33, 39, 33, 33, 25]"] ;
0 -> 16 [labeldistance=2.5, labelangle=-45, headlabel="False"] ;
17 [label="X[61] <= 7.5\ngini = 0.718\nsamples = 95\nvalue = [0, 8, 9, 0, 7, 30, 38, 2, 1, 0]"] ;
16 -> 17 ;
18 [label="X[5] <= 5.5\ngini = 0.479\nsamples = 43\nvalue = [0, 3, 1, 0, 7, 30, 0, 2, 0, 0]"] ;
17 -> 18 ;
19 [label="X[33] <= 3.5\ngini = 0.673\nsamples = 14\nvalue = [0, 3, 1, 0, 7, 1, 0, 2, 0, 0]"] ;
18 -> 19 ;
20 [label="X[2] <= 6.5\ngini = 0.694\nsamples = 7\nvalue = [0, 3, 1, 0, 0, 1, 0, 2, 0, 0]"] ;
19 -> 20 ;
21 [label="gini = 0.0\nsamples = 3\nvalue = [0, 3, 0, 0, 0, 0, 0, 0, 0, 0]"] ;
20 -> 21 ;
22 [label="X[11] <= 11.5\ngini = 0.625\nsamples = 4\nvalue = [0, 0, 1, 0, 0, 1, 0, 2, 0, 0]"] ;
20 -> 22 ;
23 [label="gini = 0.0\nsamples = 2\nvalue = [0, 0, 0, 0, 0, 0, 0, 2, 0, 0]"] ;
22 -> 23 ;
24 [label="X[29] <= 0.5\ngini = 0.5\nsamples = 2\nvalue = [0, 0, 1, 0, 0, 1, 0, 0, 0, 0]"] ;
22 -> 24 ;
25 [label="gini = 0.0\nsamples = 1\nvalue = [0, 0, 1, 0, 0, 0, 0, 0, 0, 0]"] ;
24 -> 25 ;
26 [label="gini = 0.0\nsamples = 1\nvalue = [0, 0, 0, 0, 0, 1, 0, 0, 0, 0]"] ;
24 -> 26 ;
27 [label="gini = 0.0\nsamples = 7\nvalue = [0, 0, 0, 0, 7, 0, 0, 0, 0, 0]"] ;
19 -> 27 ;
28 [label="gini = 0.0\nsamples = 29\nvalue = [0, 0, 0, 0, 0, 29, 0, 0, 0, 0]"] ;
18 -> 28 ;
29 [label="X[34] <= 6.0\ngini = 0.433\nsamples = 52\nvalue = [0, 5, 8, 0, 0, 0, 38, 0, 1, 0]"] ;
17 -> 29 ;
30 [label="X[55] <= 3.0\ngini = 0.473\nsamples = 13\nvalue = [0, 5, 8, 0, 0, 0, 0, 0, 0, 0]"] ;
29 -> 30 ;
31 [label="gini = 0.0\nsamples = 8\nvalue = [0, 0, 8, 0, 0, 0, 0, 0, 0, 0]"] ;
30 -> 31 ;
32 [label="gini = 0.0\nsamples = 5\nvalue = [0, 5, 0, 0, 0, 0, 0, 0, 0, 0]"] ;
30 -> 32 ;
33 [label="X[42] <= 4.5\ngini = 0.05\nsamples = 39\nvalue = [0, 0, 0, 0, 0, 0, 38, 0, 1, 0]"] ;
29 -> 33 ;
34 [label="gini = 0.0\nsamples = 1\nvalue = [0, 0, 0, 0, 0, 0, 0, 0, 1, 0]"] ;
33 -> 34 ;
35 [label="gini = 0.0\nsamples = 38\nvalue = [0, 0, 0, 0, 0, 0, 38, 0, 0, 0]"] ;
33 -> 35 ;
36 [label="X[33] <= 6.5\ngini = 0.863\nsamples = 204\nvalue = [2, 32, 24, 30, 24, 3, 1, 31, 32, 25]"] ;
16 -> 36 ;
37 [label="X[60] <= 7.5\ngini = 0.847\nsamples = 182\nvalue = [2, 32, 24, 30, 4, 2, 1, 30, 32, 25]"] ;
36 -> 37 ;
38 [label="X[53] <= 1.5\ngini = 0.413\nsamples = 37\nvalue = [0, 2, 1, 3, 0, 0, 0, 28, 1, 2]"] ;
37 -> 38 ;
39 [label="X[25] <= 5.5\ngini = 0.069\nsamples = 28\nvalue = [0, 0, 0, 0, 0, 0, 0, 27, 0, 1]"] ;
38 -> 39 ;
40 [label="gini = 0.0\nsamples = 27\nvalue = [0, 0, 0, 0, 0, 0, 0, 27, 0, 0]"] ;
39 -> 40 ;
41 [label="gini = 0.0\nsamples = 1\nvalue = [0, 0, 0, 0, 0, 0, 0, 0, 0, 1]"] ;
39 -> 41 ;
42 [label="X[9] <= 0.5\ngini = 0.79\nsamples = 9\nvalue = [0, 2, 1, 3, 0, 0, 0, 1, 1, 1]"] ;
38 -> 42 ;
43 [label="X[62] <= 2.0\ngini = 0.72\nsamples = 5\nvalue = [0, 2, 0, 0, 0, 0, 0, 1, 1, 1]"] ;
42 -> 43 ;
44 [label="X[3] <= 5.5\ngini = 0.667\nsamples = 3\nvalue = [0, 0, 0, 0, 0, 0, 0, 1, 1, 1]"] ;
43 -> 44 ;
45 [label="gini = 0.0\nsamples = 1\nvalue = [0, 0, 0, 0, 0, 0, 0, 0, 0, 1]"] ;
44 -> 45 ;
46 [label="X[5] <= 10.0\ngini = 0.5\nsamples = 2\nvalue = [0, 0, 0, 0, 0, 0, 0, 1, 1, 0]"] ;
44 -> 46 ;
47 [label="gini = 0.0\nsamples = 1\nvalue = [0, 0, 0, 0, 0, 0, 0, 0, 1, 0]"] ;
46 -> 47 ;
48 [label="gini = 0.0\nsamples = 1\nvalue = [0, 0, 0, 0, 0, 0, 0, 1, 0, 0]"] ;
46 -> 48 ;
49 [label="gini = 0.0\nsamples = 2\nvalue = [0, 2, 0, 0, 0, 0, 0, 0, 0, 0]"] ;
43 -> 49 ;
50 [label="X[5] <= 3.0\ngini = 0.375\nsamples = 4\nvalue = [0, 0, 1, 3, 0, 0, 0, 0, 0, 0]"] ;
42 -> 50 ;
51 [label="gini = 0.0\nsamples = 1\nvalue = [0, 0, 1, 0, 0, 0, 0, 0, 0, 0]"] ;
50 -> 51 ;
52 [label="gini = 0.0\nsamples = 3\nvalue = [0, 0, 0, 3, 0, 0, 0, 0, 0, 0]"] ;
50 -> 52 ;
53 [label="X[10] <= 7.5\ngini = 0.825\nsamples = 145\nvalue = [2, 30, 23, 27, 4, 2, 1, 2, 31, 23]"] ;
37 -> 53 ;
54 [label="X[20] <= 11.5\ngini = 0.546\nsamples = 41\nvalue = [1, 27, 2, 1, 4, 0, 1, 1, 1, 3]"] ;
53 -> 54 ;
55 [label="X[13] <= 1.5\ngini = 0.847\nsamples = 12\nvalue = [1, 0, 2, 1, 3, 0, 1, 1, 1, 2]"] ;
54 -> 55 ;
56 [label="gini = 0.0\nsamples = 3\nvalue = [0, 0, 0, 0, 3, 0, 0, 0, 0, 0]"] ;
55 -> 56 ;
57 [label="X[17] <= 0.5\ngini = 0.84\nsamples = 9\nvalue = [1, 0, 2, 1, 0, 0, 1, 1, 1, 2]"] ;
55 -> 57 ;
58 [label="X[27] <= 2.0\ngini = 0.816\nsamples = 7\nvalue = [1, 0, 2, 1, 0, 0, 1, 1, 1, 0]"] ;
57 -> 58 ;
59 [label="gini = 0.0\nsamples = 2\nvalue = [0, 0, 2, 0, 0, 0, 0, 0, 0, 0]"] ;
58 -> 59 ;
60 [label="X[52] <= 8.0\ngini = 0.8\nsamples = 5\nvalue = [1, 0, 0, 1, 0, 0, 1, 1, 1, 0]"] ;
58 -> 60 ;
61 [label="gini = 0.0\nsamples = 1\nvalue = [0, 0, 0, 0, 0, 0, 0, 0, 1, 0]"] ;
60 -> 61 ;
62 [label="X[62] <= 5.0\ngini = 0.75\nsamples = 4\nvalue = [1, 0, 0, 1, 0, 0, 1, 1, 0, 0]"] ;
60 -> 62 ;
63 [label="X[28] <= 2.0\ngini = 0.667\nsamples = 3\nvalue = [1, 0, 0, 1, 0, 0, 0, 1, 0, 0]"] ;
62 -> 63 ;
64 [label="gini = 0.0\nsamples = 1\nvalue = [1, 0, 0, 0, 0, 0, 0, 0, 0, 0]"] ;
63 -> 64 ;
65 [label="X[34] <= 7.0\ngini = 0.5\nsamples = 2\nvalue = [0, 0, 0, 1, 0, 0, 0, 1, 0, 0]"] ;
63 -> 65 ;
66 [label="gini = 0.0\nsamples = 1\nvalue = [0, 0, 0, 1, 0, 0, 0, 0, 0, 0]"] ;
65 -> 66 ;
67 [label="gini = 0.0\nsamples = 1\nvalue = [0, 0, 0, 0, 0, 0, 0, 1, 0, 0]"] ;
65 -> 67 ;
68 [label="gini = 0.0\nsamples = 1\nvalue = [0, 0, 0, 0, 0, 0, 1, 0, 0, 0]"] ;
62 -> 68 ;
69 [label="gini = 0.0\nsamples = 2\nvalue = [0, 0, 0, 0, 0, 0, 0, 0, 0, 2]"] ;
57 -> 69 ;
70 [label="X[14] <= 11.0\ngini = 0.131\nsamples = 29\nvalue = [0, 27, 0, 0, 1, 0, 0, 0, 0, 1]"] ;
54 -> 70 ;
71 [label="X[42] <= 15.5\ngini = 0.069\nsamples = 28\nvalue = [0, 27, 0, 0, 1, 0, 0, 0, 0, 0]"] ;
70 -> 71 ;
72 [label="gini = 0.0\nsamples = 27\nvalue = [0, 27, 0, 0, 0, 0, 0, 0, 0, 0]"] ;
71 -> 72 ;
73 [label="gini = 0.0\nsamples = 1\nvalue = [0, 0, 0, 0, 1, 0, 0, 0, 0, 0]"] ;
71 -> 73 ;
74 [label="gini = 0.0\nsamples = 1\nvalue = [0, 0, 0, 0, 0, 0, 0, 0, 0, 1]"] ;
70 -> 74 ;
75 [label="X[43] <= 3.0\ngini = 0.775\nsamples = 104\nvalue = [1, 3, 21, 26, 0, 2, 0, 1, 30, 20]"] ;
53 -> 75 ;
76 [label="X[18] <= 12.5\ngini = 0.588\nsamples = 48\nvalue = [0, 0, 0, 24, 0, 2, 0, 0, 3, 19]"] ;
75 -> 76 ;
77 [label="X[26] <= 5.5\ngini = 0.203\nsamples = 27\nvalue = [0, 0, 0, 24, 0, 0, 0, 0, 2, 1]"] ;
76 -> 77 ;
78 [label="gini = 0.0\nsamples = 24\nvalue = [0, 0, 0, 24, 0, 0, 0, 0, 0, 0]"] ;
77 -> 78 ;
79 [label="X[25] <= 2.0\ngini = 0.444\nsamples = 3\nvalue = [0, 0, 0, 0, 0, 0, 0, 0, 2, 1]"] ;
77 -> 79 ;
80 [label="gini = 0.0\nsamples = 2\nvalue = [0, 0, 0, 0, 0, 0, 0, 0, 2, 0]"] ;
79 -> 80 ;
81 [label="gini = 0.0\nsamples = 1\nvalue = [0, 0, 0, 0, 0, 0, 0, 0, 0, 1]"] ;
79 -> 81 ;
82 [label="X[21] <= 6.5\ngini = 0.254\nsamples = 21\nvalue = [0, 0, 0, 0, 0, 2, 0, 0, 1, 18]"] ;
76 -> 82 ;
83 [label="gini = 0.0\nsamples = 2\nvalue = [0, 0, 0, 0, 0, 2, 0, 0, 0, 0]"] ;
82 -> 83 ;
84 [label="X[13] <= 1.5\ngini = 0.1\nsamples = 19\nvalue = [0, 0, 0, 0, 0, 0, 0, 0, 1, 18]"] ;
82 -> 84 ;
85 [label="gini = 0.0\nsamples = 1\nvalue = [0, 0, 0, 0, 0, 0, 0, 0, 1, 0]"] ;
84 -> 85 ;
86 [label="gini = 0.0\nsamples = 18\nvalue = [0, 0, 0, 0, 0, 0, 0, 0, 0, 18]"] ;
84 -> 86 ;
87 [label="X[26] <= 6.5\ngini = 0.622\nsamples = 56\nvalue = [1, 3, 21, 2, 0, 0, 0, 1, 27, 1]"] ;
75 -> 87 ;
88 [label="X[27] <= 13.0\ngini = 0.464\nsamples = 30\nvalue = [0, 0, 21, 2, 0, 0, 0, 1, 6, 0]"] ;
87 -> 88 ;
89 [label="X[50] <= 2.0\ngini = 0.163\nsamples = 23\nvalue = [0, 0, 21, 1, 0, 0, 0, 1, 0, 0]"] ;
88 -> 89 ;
90 [label="X[5] <= 11.5\ngini = 0.5\nsamples = 2\nvalue = [0, 0, 0, 1, 0, 0, 0, 1, 0, 0]"] ;
89 -> 90 ;
91 [label="gini = 0.0\nsamples = 1\nvalue = [0, 0, 0, 1, 0, 0, 0, 0, 0, 0]"] ;
90 -> 91 ;
92 [label="gini = 0.0\nsamples = 1\nvalue = [0, 0, 0, 0, 0, 0, 0, 1, 0, 0]"] ;
90 -> 92 ;
93 [label="gini = 0.0\nsamples = 21\nvalue = [0, 0, 21, 0, 0, 0, 0, 0, 0, 0]"] ;
89 -> 93 ;
94 [label="X[21] <= 8.5\ngini = 0.245\nsamples = 7\nvalue = [0, 0, 0, 1, 0, 0, 0, 0, 6, 0]"] ;
88 -> 94 ;
95 [label="gini = 0.0\nsamples = 1\nvalue = [0, 0, 0, 1, 0, 0, 0, 0, 0, 0]"] ;
94 -> 95 ;
96 [label="gini = 0.0\nsamples = 6\nvalue = [0, 0, 0, 0, 0, 0, 0, 0, 6, 0]"] ;
94 -> 96 ;
97 [label="X[19] <= 15.5\ngini = 0.331\nsamples = 26\nvalue = [1, 3, 0, 0, 0, 0, 0, 0, 21, 1]"] ;
87 -> 97 ;
98 [label="X[37] <= 15.0\ngini = 0.163\nsamples = 23\nvalue = [1, 0, 0, 0, 0, 0, 0, 0, 21, 1]"] ;
97 -> 98 ;
99 [label="gini = 0.0\nsamples = 21\nvalue = [0, 0, 0, 0, 0, 0, 0, 0, 21, 0]"] ;
98 -> 99 ;
100 [label="X[35] <= 10.0\ngini = 0.5\nsamples = 2\nvalue = [1, 0, 0, 0, 0, 0, 0, 0, 0, 1]"] ;
98 -> 100 ;
101 [label="gini = 0.0\nsamples = 1\nvalue = [1, 0, 0, 0, 0, 0, 0, 0, 0, 0]"] ;
100 -> 101 ;
102 [label="gini = 0.0\nsamples = 1\nvalue = [0, 0, 0, 0, 0, 0, 0, 0, 0, 1]"] ;
100 -> 102 ;
103 [label="gini = 0.0\nsamples = 3\nvalue = [0, 3, 0, 0, 0, 0, 0, 0, 0, 0]"] ;
97 -> 103 ;
104 [label="X[2] <= 3.5\ngini = 0.169\nsamples = 22\nvalue = [0, 0, 0, 0, 20, 1, 0, 1, 0, 0]"] ;
36 -> 104 ;
105 [label="gini = 0.0\nsamples = 20\nvalue = [0, 0, 0, 0, 20, 0, 0, 0, 0, 0]"] ;
104 -> 105 ;
106 [label="X[61] <= 0.5\ngini = 0.5\nsamples = 2\nvalue = [0, 0, 0, 0, 0, 1, 0, 1, 0, 0]"] ;
104 -> 106 ;
107 [label="gini = 0.0\nsamples = 1\nvalue = [0, 0, 0, 0, 0, 0, 0, 1, 0, 0]"] ;
106 -> 107 ;
108 [label="gini = 0.0\nsamples = 1\nvalue = [0, 0, 0, 0, 0, 1, 0, 0, 0, 0]"] ;
106 -> 108 ;
}